%YAML:1.0
opencv_ml_svm:
   svmType: EPS_SVR
   kernel:
      type: LINEAR
   C: 1.0000000000000000e-002
   p: 1.0000000000000001e-001
   term_criteria: { epsilon:1.0000000000000000e-003, iterations:1000 }
   var_count: 576
   sv_total: 1
   support_vectors:
      - [ -3.87558304e-002, -3.80336232e-002, 2.96383351e-002,
          1.38616217e-002, -3.82301882e-002, -3.17582265e-002,
          3.40964794e-002, 1.18428040e-002, -1.06741497e-002,
          -8.31610709e-003, 3.41069289e-002, 5.31983823e-002,
          -3.56962830e-002, -6.43311143e-002, -6.67286292e-002,
          -2.01845393e-002, -1.57312676e-002, -2.25117728e-002,
          -1.41093945e-002, 3.16314660e-002, 7.85259232e-002,
          6.34187385e-002, 9.34233516e-003, -9.20296907e-002,
          -1.63855534e-002, -7.93439150e-003, -1.50852688e-002,
          1.53723266e-002, 1.29602820e-001, 1.21682428e-001,
          9.34255794e-002, 2.75875852e-002, -2.40430310e-002,
          -1.96142681e-002, 1.60216412e-003, -1.05525274e-002,
          3.79416570e-002, 7.14670308e-003, -5.26968855e-004,
          -6.16934299e-002, -7.70812929e-002, -3.41090932e-002,
          -2.85285469e-002, -1.23667880e-003, -6.17449521e-004,
          5.53988218e-002, 5.56698330e-002, 6.87034288e-003,
          -9.56238434e-002, -6.79760501e-002, -6.77400967e-003,
          5.11755142e-003, 7.88675994e-003, 2.69576348e-003,
          2.17429064e-002, 5.98856471e-002, 6.33085370e-002,
          1.10390835e-001, 4.93417196e-002, 2.99802478e-002,
          -5.68042090e-003, 1.06712999e-002, 1.23668520e-003,
          2.49965563e-002, 5.10184541e-002, 2.71712597e-002,
          3.04974001e-002, 2.71857940e-002, 7.53201917e-002,
          6.33133482e-003, 1.20767513e-002, -9.10799019e-003,
          5.36921844e-002, 3.65383439e-002, 3.66828404e-002,
          -7.19778687e-002, -7.75538087e-002, -1.74383000e-002,
          2.53346544e-002, 1.78084411e-002, 3.07298824e-002,
          6.35754084e-003, -6.61411881e-003, 6.81586610e-003,
          -8.01913291e-002, -5.82532845e-002, 5.24905929e-003,
          8.01560935e-003, 2.96612326e-002, 2.89234873e-002,
          2.17077378e-002, -5.04230289e-003, -8.27909913e-004,
          4.72741202e-002, 5.60189374e-002, 1.02773793e-001,
          4.74785082e-003, 6.83467230e-003, 6.18894445e-003,
          2.85316426e-002, -3.63853090e-002, -3.25422846e-002,
          3.70784360e-003, 2.83508264e-002, 1.13520376e-001,
          -1.07617434e-002, 1.93926524e-002, 5.45248538e-002,
          3.43517847e-002, -7.95787945e-003, -1.01355109e-002,
          -1.14078440e-001, -3.93289328e-002, 1.01936325e-001,
          5.54044209e-002, 1.00326285e-001, 9.70312655e-002,
          -3.89253609e-002, -6.29849881e-002, -4.70056646e-002,
          -1.52776241e-001, -1.17375627e-001, 2.17904191e-004,
          3.27436812e-002, 3.25048268e-002, 1.55771589e-002,
          2.59894021e-002, -1.49426162e-002, -3.80231477e-002,
          2.92318384e-003, 3.80903147e-002, 1.93410337e-001,
          7.79333711e-003, 3.66842584e-003, 3.52387242e-002,
          -6.03771731e-002, -4.90617566e-002, -3.68116051e-002,
          -2.32397877e-002, 2.02814937e-002, 3.78846340e-002,
          -7.02504301e-003, -3.31956521e-002, -4.98643890e-002,
          -4.87615280e-002, -1.29232466e-001, -1.12428419e-001,
          4.01052684e-002, 1.80344917e-002, -9.85764489e-002,
          -1.87114794e-002, -7.64799258e-003, -3.93400826e-002,
          -5.81547022e-002, -3.19333784e-002, -2.85655763e-002,
          1.56836942e-001, 1.12129889e-001, -9.00809020e-002,
          -5.82731962e-002, -3.60307582e-002, -5.95427230e-002,
          -2.83750575e-002, -4.15731557e-002, -8.50739777e-002,
          9.27927718e-003, 6.71892166e-002, -5.43779582e-002,
          -2.43575163e-002, -1.38155501e-002, -3.48782763e-002,
          -2.22020391e-002, -5.56763411e-002, -1.67921260e-001,
          1.07291110e-001, 4.86603677e-002, -6.81729848e-003,
          -5.44921085e-002, -3.12190279e-002, -3.60444039e-002,
          -2.92993207e-002, -3.56444865e-002, -5.38220704e-002,
          8.07199702e-002, 4.28039059e-002, -4.02232707e-002,
          -1.57106463e-002, -2.34479364e-002, -2.67797168e-002,
          -3.39271203e-002, -4.87399213e-002, -6.00319095e-002,
          -1.37493368e-002, -2.45243125e-002, -1.49442395e-002,
          -4.04481813e-002, -3.32666002e-002, -4.57767136e-002,
          2.38380991e-002, -3.90259176e-002, -1.00646868e-001,
          6.69128448e-002, 3.03477664e-002, 1.23517048e-002,
          -2.52386555e-003, 7.47000193e-003, 1.52641544e-002,
          -1.76852569e-002, -4.80938219e-002, -3.68794613e-002,
          4.11552265e-002, -1.49235372e-002, 4.69905930e-003,
          2.67914925e-002, -5.20803872e-003, -1.74016580e-002,
          -3.43730189e-002, -6.58899769e-002, -7.29467496e-002,
          -5.57872280e-003, 3.80170494e-002, 2.31165439e-002,
          -5.17067425e-002, -2.20285114e-002, -3.68452035e-002,
          -1.11564128e-002, -5.43581471e-002, -7.17651248e-002,
          -3.98122240e-003, 1.19455694e-003, 3.84857878e-002,
          -7.54692629e-002, -1.49637144e-002, -1.13472352e-002,
          3.29858065e-003, -3.06764841e-002, -3.12381070e-002,
          6.23882636e-002, 1.67309195e-002, 6.19078204e-002,
          1.22680282e-002, 1.38841271e-002, 3.27588408e-003,
          -1.59814637e-002, -4.60981354e-002, -8.43514800e-002,
          3.74748558e-002, -2.09010895e-002, 4.12638038e-002,
          -2.36973576e-002, 1.18863601e-002, -1.62040833e-002,
          -1.97410434e-002, -4.82040867e-002, -9.89052728e-002,
          3.16073257e-003, 6.26379028e-002, 3.30756530e-002,
          -8.96104425e-002, -4.83180322e-002, -3.13943848e-002,
          -7.76051208e-002, -6.48870468e-002, -1.14486106e-001,
          -2.98278593e-002, 1.96051225e-002, -7.38710761e-002,
          -6.80790916e-002, -4.94293459e-002, -6.21057749e-002,
          -1.47963176e-002, -5.51289842e-002, -1.08182222e-001,
          1.16278820e-001, 5.20643741e-002, -2.55166423e-002,
          -5.90402707e-002, -2.63984110e-002, -3.34840491e-002,
          -5.54056093e-002, -6.94156513e-002, -1.32822126e-001,
          4.38964218e-002, 1.16972039e-002, -1.47799611e-001,
          -7.37486631e-002, -5.94063550e-002, -7.14659691e-002,
          -4.62589003e-002, 1.17684752e-002, -6.46208525e-002,
          -4.60283905e-002, 6.47268966e-002, 7.96035118e-003,
          -3.00283805e-002, -2.26203930e-002, -3.76870967e-002,
          1.16093028e-002, 1.91706419e-002, -6.49669543e-002,
          2.98615377e-002, 6.43943176e-002, 4.78791371e-002,
          -4.74065766e-002, 6.74659899e-003, 4.82121762e-003,
          -7.32245445e-002, -4.02610656e-003, -3.49834003e-002,
          -9.74164009e-002, 5.99560142e-002, 6.12366535e-002,
          -3.33423577e-002, -2.94689909e-002, -5.91669530e-002,
          2.77504101e-002, 1.29885226e-001, 5.76376840e-002,
          -9.68912523e-003, 6.05404302e-002, 1.06789410e-001,
          2.72411890e-002, 3.99519019e-002, 3.25121470e-002,
          6.85340017e-002, 1.68171879e-002, -2.08788458e-002,
          -3.94302420e-002, 4.30315621e-002, 1.20835297e-003,
          1.87502783e-002, 4.20154966e-002, 4.70069386e-002,
          3.48731689e-002, 2.59695342e-003, -1.01912748e-002,
          1.28366491e-002, -7.33640231e-003, -2.82852910e-002,
          3.34874839e-002, 4.51617278e-002, 4.47888076e-002,
          8.97867456e-002, 1.02660760e-001, 7.45603591e-002,
          -1.22042187e-002, 1.50148664e-002, 8.18208733e-004,
          3.78859341e-002, 6.41808882e-002, 8.13509375e-002,
          5.26190884e-002, 3.88414860e-002, 5.91954812e-002,
          4.99458723e-002, -4.14820313e-002, -4.80941050e-002,
          1.97326764e-002, 4.77634184e-002, 6.43838570e-002,
          2.95537878e-002, 1.03897285e-002, 8.10506009e-003,
          4.11794856e-002, -4.44758870e-003, 6.14170246e-002,
          6.19293749e-002, 6.23445362e-002, 5.76822422e-002,
          -2.58986633e-002, -2.19365656e-002, -3.42312269e-002,
          4.42368798e-002, -3.42065026e-003, 1.94107033e-002,
          2.26339791e-002, 2.35370807e-002, -1.93451513e-002,
          6.50109351e-002, 5.43033108e-002, 6.13384694e-002,
          5.69978654e-002, 1.68069600e-004, 5.78349903e-002,
          7.11363778e-002, 7.40706474e-002, 6.58529103e-002,
          4.94451914e-003, -9.72897094e-003, -3.96051817e-003,
          3.26717459e-002, 2.57255342e-002, 3.71476561e-002,
          4.46937084e-002, 3.64421979e-002, 2.39714999e-002,
          -3.18255313e-002, -6.97325245e-002, -8.16517174e-002,
          1.55833215e-001, 9.72611234e-002, 9.50632244e-003,
          -1.00517331e-003, -2.32787989e-003, -9.37910564e-003,
          -5.02561219e-002, -4.65386994e-002, -1.21541396e-001,
          7.36775324e-002, 1.47468392e-002, -8.77456367e-002,
          -3.34145762e-002, -2.22728793e-002, -3.80255990e-002,
          -3.74305760e-003, -3.21082585e-002, -2.68189469e-003,
          1.54537916e-001, 7.82794133e-002, 3.83294858e-002,
          3.66068967e-002, 4.65909168e-002, 4.11879681e-002,
          -7.47589469e-002, -1.03172094e-001, -7.47130290e-002,
          1.37573453e-002, -3.05950679e-002, -1.01856299e-001,
          -5.77105284e-002, -4.97164726e-002, -5.66777065e-002,
          -1.99052468e-002, 3.49358283e-002, -4.07484435e-002,
          -9.15101171e-002, 4.72832248e-002, 2.29133796e-002,
          2.57964879e-002, 1.83102321e-002, -3.32606398e-002,
          1.18142404e-001, 2.60320723e-001, 7.76732415e-002,
          6.48790076e-002, 2.85377875e-002, 9.81295258e-002,
          1.05761558e-001, 9.17119682e-002, 9.13596526e-002,
          -1.11464120e-001, 5.48143759e-002, -3.46338935e-002,
          -7.27856904e-002, -6.34053349e-002, -1.03234842e-001,
          -6.09888621e-002, -7.72906691e-002, -1.27202466e-001,
          2.44149263e-003, 1.17735632e-001, 2.21064147e-002,
          -1.44184835e-003, -1.01571120e-001, -5.93472496e-002,
          -3.31610441e-002, -2.10542865e-002, -1.19294319e-002,
          7.28242025e-002, 1.39476836e-001, 8.94865245e-002,
          2.65247673e-002, -7.30724586e-003, -1.09933708e-002,
          5.33887967e-002, 5.11147529e-002, 4.65164781e-002,
          1.03344023e-002, 6.16087802e-002, 5.70847355e-002,
          8.60414505e-002, 1.02514569e-002, -5.13690859e-002,
          4.81033698e-003, 1.91675443e-002, -8.23548157e-003,
          6.61049178e-003, 7.06107728e-003, -4.79305945e-002,
          -6.45486191e-002, -1.71247926e-002, -1.83598008e-002,
          -1.39093874e-002, -4.87449719e-003, 1.21472497e-003,
          -4.41977801e-003, 1.13454624e-003, -9.30666167e-004,
          -2.75205844e-003, 1.57606490e-002, -4.64071780e-002,
          -1.63637213e-002, -1.99032519e-002, 5.31771779e-003,
          7.41053820e-002, 1.19523175e-001, 9.92386416e-002,
          8.08873251e-002, 2.94130221e-002, 1.25488201e-002,
          6.39196485e-002, 5.21647260e-002, 5.52615523e-002,
          1.06787216e-002, 5.01326360e-002, 7.13734254e-002,
          2.24828161e-002, -2.58779861e-002, -3.94136161e-002,
          -1.73766701e-003, 7.42342370e-003, 1.29277809e-002,
          2.31286772e-002, 7.05888048e-002, 6.53243363e-002,
          -4.77727270e-003, -4.64927331e-002, -4.78955843e-002,
          2.57786810e-002, 2.75849756e-002, 5.84393926e-002,
          -4.90939245e-002, -6.45972369e-003, 3.70332822e-002,
          -8.79384056e-002, -9.51289982e-002, -1.34271756e-001,
          -3.40564586e-002, -2.64648329e-002, -2.52078641e-002,
          1.00177310e-001, 6.95161894e-002, 1.25209585e-001,
          9.54308137e-002, -2.81488542e-002, 2.38489509e-002,
          6.84176013e-002, 6.81194514e-002, 1.04128301e-001,
          -2.52322014e-003, -4.79510799e-002, 3.56867835e-002,
          4.61643338e-002, -4.20142226e-002, -6.89334646e-002,
          -2.53006499e-002, -5.27345054e-002, -4.40831948e-003,
          2.69668791e-002, 4.35576327e-002, 1.00008912e-001,
          -1.73028670e-002, -7.24280551e-002, -1.17459044e-001,
          -2.69665681e-002, -2.80047003e-002, 4.05955315e-002,
          -1.42354239e-002, -1.22475680e-002, 5.14707491e-002,
          -9.09118652e-002, -5.54353297e-002, -9.01189595e-002,
          -4.48614024e-002, -7.74973780e-002, -4.06518485e-003 ]
   decision_functions:
      -
         sv_count: 1
         rho: 9.5882256491435403e-001
         alpha: [ 1. ]
